<?xml version="1.0"?>
<opencv_storage>
<cascade>
  <stageType>BOOST</stageType>
  <featureType>HAAR</featureType>
  <height>24</height>
  <width>24</width>
  <stageParams>
    <boostType>GAB</boostType>
    <minHitRate>9.9989998340606689e-01</minHitRate>
    <maxFalseAlarm>5.0000000000000000e-01</maxFalseAlarm>
    <weightTrimRate>9.4999999999999996e-01</weightTrimRate>
    <maxDepth>1</maxDepth>
    <maxWeakCount>100</maxWeakCount></stageParams>
  <featureParams>
    <maxCatCount>0</maxCatCount>
    <featSize>1</featSize>
    <mode>ALL</mode></featureParams>
  <stageNum>10</stageNum>
  <stages>
    <!-- stage 0 -->
    <_>
      <maxWeakCount>3</maxWeakCount>
      <stageThreshold>-1.2610615491867065e+00</stageThreshold>
      <weakClassifiers>
        <_>
          <internalNodes>
            0 -1 7 -6.2528118491172791e-02</internalNodes>
          <leafValues>
            8.9999997615814209e-01 -9.5702481269836426e-01</leafValues></_>
        <_>
          <internalNodes>
            0 -1 13 2.6309516280889511e-02</internalNodes>
          <leafValues>
            -9.5483571290969849e-01 7.8019881248474121e-01</leafValues></_>
        <_>
          <internalNodes>
            0 -1 26 3.4823331981897354e-02</internalNodes>
          <leafValues>
            -9.3152964115142822e-01 6.5079891681671143e-01</leafValues></_></weakClassifiers></_>
    <!-- stage 1 -->
    <_>
      <maxWeakCount>3</maxWeakCount>
      <stageThreshold>-1.0780491828918457e+00</stageThreshold>
      <weakClassifiers>
        <_>
          <internalNodes>
            0 -1 1 -1.6948598623275757e-01</internalNodes>
          <leafValues>
            8.7671232223510742e-01 -9.0953147411346436e-01</leafValues></_>
        <_>
          <internalNodes>
            0 -1 5 -2.6833124458789825e-02</internalNodes>
          <leafValues>
            7.8210842609405518e-01 -8.4216195344924927e-01</leafValues></_>
        <_>
          <internalNodes>
            0 -1 18 -8.2235503941774368e-03</internalNodes>
          <leafValues>
            6.7364430427551270e-01 -9.5150589942932129e-01</leafValues></_></weakClassifiers></_>
    <!-- stage 2 -->
    <_>
      <maxWeakCount>3</maxWeakCount>
      <stageThreshold>-1.2594695091247559e+00</stageThreshold>
      <weakClassifiers>
        <_>
          <internalNodes>
            0 -1 2 -4.8577688634395599e-02</internalNodes>
          <leafValues>
            7.1249997615814209e-01 -9.0743803977966309e-01</leafValues></_>
        <_>
          <internalNodes>
            0 -1 31 3.8318060338497162e-02</internalNodes>
          <leafValues>
            -8.4239208698272705e-01 7.7372336387634277e-01</leafValues></_>
        <_>
          <internalNodes>
            0 -1 9 -3.5193301737308502e-03</internalNodes>
          <leafValues>
            4.9036058783531189e-01 -9.3623173236846924e-01</leafValues></_></weakClassifiers></_>
    <!-- stage 3 -->
    <_>
      <maxWeakCount>3</maxWeakCount>
      <stageThreshold>-1.0207141637802124e+00</stageThreshold>
      <weakClassifiers>
        <_>
          <internalNodes>
            0 -1 32 6.1802722513675690e-02</internalNodes>
          <leafValues>
            -8.5987263917922974e-01 7.6642334461212158e-01</leafValues></_>
        <_>
          <internalNodes>
            0 -1 14 7.4537149630486965e-03</internalNodes>
          <leafValues>
            -8.1429886817932129e-01 6.7694991827011108e-01</leafValues></_>
        <_>
          <internalNodes>
            0 -1 17 5.1905587315559387e-03</internalNodes>
          <leafValues>
            -7.7285218238830566e-01 6.5345734357833862e-01</leafValues></_></weakClassifiers></_>
    <!-- stage 4 -->
    <_>
      <maxWeakCount>4</maxWeakCount>
      <stageThreshold>-2.0015056133270264e+00</stageThreshold>
      <weakClassifiers>
        <_>
          <internalNodes>
            0 -1 0 6.0585170984268188e-02</internalNodes>
          <leafValues>
            -8.8636362552642822e-01 7.4496644735336304e-01</leafValues></_>
        <_>
          <internalNodes>
            0 -1 22 5.7715125381946564e-02</internalNodes>
          <leafValues>
            -8.3217543363571167e-01 4.3738883733749390e-01</leafValues></_>
        <_>
          <internalNodes>
            0 -1 19 -2.6234891265630722e-02</internalNodes>
          <leafValues>
            6.2620693445205688e-01 -7.1014583110809326e-01</leafValues></_>
        <_>
          <internalNodes>
            0 -1 10 2.9682959429919720e-03</internalNodes>
          <leafValues>
            -9.4254279136657715e-01 4.2717930674552917e-01</leafValues></_></weakClassifiers></_>
    <!-- stage 5 -->
    <_>
      <maxWeakCount>4</maxWeakCount>
      <stageThreshold>-9.4500988721847534e-01</stageThreshold>
      <weakClassifiers>
        <_>
          <internalNodes>
            0 -1 8 -1.1550866812467575e-01</internalNodes>
          <leafValues>
            5.1190477609634399e-01 -8.7269681692123413e-01</leafValues></_>
        <_>
          <internalNodes>
            0 -1 21 -6.4485874027013779e-03</internalNodes>
          <leafValues>
            5.2470642328262329e-01 -8.1475102901458740e-01</leafValues></_>
        <_>
          <internalNodes>
            0 -1 28 1.2971414253115654e-03</internalNodes>
          <leafValues>
            -9.6142214536666870e-01 3.6373591423034668e-01</leafValues></_>
        <_>
          <internalNodes>
            0 -1 4 -2.0917862653732300e-02</internalNodes>
          <leafValues>
            3.7870201468467712e-01 -9.6529281139373779e-01</leafValues></_></weakClassifiers></_>
    <!-- stage 6 -->
    <_>
      <maxWeakCount>3</maxWeakCount>
      <stageThreshold>-1.1698288917541504e+00</stageThreshold>
      <weakClassifiers>
        <_>
          <internalNodes>
            0 -1 3 6.4001008868217468e-02</internalNodes>
          <leafValues>
            -8.6752825975418091e-01 6.9863015413284302e-01</leafValues></_>
        <_>
          <internalNodes>
            0 -1 29 5.9891544282436371e-02</internalNodes>
          <leafValues>
            -6.9755983352661133e-01 5.3451621532440186e-01</leafValues></_>
        <_>
          <internalNodes>
            0 -1 12 1.0760793462395668e-02</internalNodes>
          <leafValues>
            -1. 3.9525917172431946e-01</leafValues></_></weakClassifiers></_>
    <!-- stage 7 -->
    <_>
      <maxWeakCount>3</maxWeakCount>
      <stageThreshold>-1.0051680803298950e+00</stageThreshold>
      <weakClassifiers>
        <_>
          <internalNodes>
            0 -1 27 1.2648931145668030e-01</internalNodes>
          <leafValues>
            -8.3359497785568237e-01 7.5000000000000000e-01</leafValues></_>
        <_>
          <internalNodes>
            0 -1 15 -7.3376953601837158e-02</internalNodes>
          <leafValues>
            6.0771292448043823e-01 -7.1723043918609619e-01</leafValues></_>
        <_>
          <internalNodes>
            0 -1 24 -2.7857553213834763e-03</internalNodes>
          <leafValues>
            5.5166941881179810e-01 -7.7928596735000610e-01</leafValues></_></weakClassifiers></_>
    <!-- stage 8 -->
    <_>
      <maxWeakCount>4</maxWeakCount>
      <stageThreshold>-1.5961421728134155e+00</stageThreshold>
      <weakClassifiers>
        <_>
          <internalNodes>
            0 -1 30 5.4165385663509369e-02</internalNodes>
          <leafValues>
            -8.6401325464248657e-01 5.3086417913436890e-01</leafValues></_>
        <_>
          <internalNodes>
            0 -1 20 4.7717414796352386e-02</internalNodes>
          <leafValues>
            -7.0539057254791260e-01 6.3063782453536987e-01</leafValues></_>
        <_>
          <internalNodes>
            0 -1 6 5.5207930505275726e-02</internalNodes>
          <leafValues>
            -7.5159251689910889e-01 5.2631098031997681e-01</leafValues></_>
        <_>
          <internalNodes>
            0 -1 23 4.8251509666442871e-02</internalNodes>
          <leafValues>
            -5.3297752141952515e-01 7.2485423088073730e-01</leafValues></_></weakClassifiers></_>
    <!-- stage 9 -->
    <_>
      <maxWeakCount>3</maxWeakCount>
      <stageThreshold>-1.4003809690475464e+00</stageThreshold>
      <weakClassifiers>
        <_>
          <internalNodes>
            0 -1 16 -6.3926771283149719e-02</internalNodes>
          <leafValues>
            6.6037738323211670e-01 -7.6631259918212891e-01</leafValues></_>
        <_>
          <internalNodes>
            0 -1 25 -1.0548353195190430e-02</internalNodes>
          <leafValues>
            3.1994390487670898e-01 -8.7830543518066406e-01</leafValues></_>
        <_>
          <internalNodes>
            0 -1 11 4.0733354398980737e-04</internalNodes>
          <leafValues>
            -9.9369174242019653e-01 2.4423709511756897e-01</leafValues></_></weakClassifiers></_></stages>
  <features>
    <_>
      <rects>
        <_>
          0 0 1 24 -1.</_>
        <_>
          0 12 1 12 2.</_></rects>
      <tilted>0</tilted></_>
    <_>
      <rects>
        <_>
          0 0 16 20 -1.</_>
        <_>
          0 0 8 10 2.</_>
        <_>
          8 10 8 10 2.</_></rects>
      <tilted>0</tilted></_>
    <_>
      <rects>
        <_>
          0 1 4 22 -1.</_>
        <_>
          0 1 2 11 2.</_>
        <_>
          2 12 2 11 2.</_></rects>
      <tilted>0</tilted></_>
    <_>
      <rects>
        <_>
          0 1 24 2 -1.</_>
        <_>
          6 1 12 2 2.</_></rects>
      <tilted>0</tilted></_>
    <_>
      <rects>
        <_>
          0 2 4 22 -1.</_>
        <_>
          0 2 2 11 2.</_>
        <_>
          2 13 2 11 2.</_></rects>
      <tilted>0</tilted></_>
    <_>
      <rects>
        <_>
          0 6 4 16 -1.</_>
        <_>
          0 6 2 8 2.</_>
        <_>
          2 14 2 8 2.</_></rects>
      <tilted>0</tilted></_>
    <_>
      <rects>
        <_>
          0 6 2 18 -1.</_>
        <_>
          0 15 2 9 2.</_></rects>
      <tilted>0</tilted></_>
    <_>
      <rects>
        <_>
          0 9 8 14 -1.</_>
        <_>
          0 9 4 7 2.</_>
        <_>
          4 16 4 7 2.</_></rects>
      <tilted>0</tilted></_>
    <_>
      <rects>
        <_>
          0 17 24 4 -1.</_>
        <_>
          6 17 12 4 2.</_></rects>
      <tilted>0</tilted></_>
    <_>
      <rects>
        <_>
          0 20 6 1 -1.</_>
        <_>
          3 20 3 1 2.</_></rects>
      <tilted>0</tilted></_>
    <_>
      <rects>
        <_>
          1 18 23 6 -1.</_>
        <_>
          1 20 23 2 3.</_></rects>
      <tilted>0</tilted></_>
    <_>
      <rects>
        <_>
          4 7 2 6 -1.</_>
        <_>
          4 9 2 2 3.</_></rects>
      <tilted>0</tilted></_>
    <_>
      <rects>
        <_>
          4 7 13 6 -1.</_>
        <_>
          4 10 13 3 2.</_></rects>
      <tilted>0</tilted></_>
    <_>
      <rects>
        <_>
          4 7 20 4 -1.</_>
        <_>
          4 9 20 2 2.</_></rects>
      <tilted>0</tilted></_>
    <_>
      <rects>
        <_>
          7 6 1 6 -1.</_>
        <_>
          7 9 1 3 2.</_></rects>
      <tilted>0</tilted></_>
    <_>
      <rects>
        <_>
          8 0 16 4 -1.</_>
        <_>
          16 0 8 4 2.</_></rects>
      <tilted>0</tilted></_>
    <_>
      <rects>
        <_>
          8 1 8 6 -1.</_>
        <_>
          8 4 8 3 2.</_></rects>
      <tilted>0</tilted></_>
    <_>
      <rects>
        <_>
          10 6 2 7 -1.</_>
        <_>
          11 6 1 7 2.</_></rects>
      <tilted>0</tilted></_>
    <_>
      <rects>
        <_>
          11 4 6 4 -1.</_>
        <_>
          14 4 3 4 2.</_></rects>
      <tilted>0</tilted></_>
    <_>
      <rects>
        <_>
          11 5 6 9 -1.</_>
        <_>
          13 5 2 9 3.</_></rects>
      <tilted>0</tilted></_>
    <_>
      <rects>
        <_>
          11 7 6 5 -1.</_>
        <_>
          11 7 3 5 2.</_></rects>
      <tilted>1</tilted></_>
    <_>
      <rects>
        <_>
          12 5 3 7 -1.</_>
        <_>
          13 5 1 7 3.</_></rects>
      <tilted>0</tilted></_>
    <_>
      <rects>
        <_>
          12 5 12 8 -1.</_>
        <_>
          12 9 12 4 2.</_></rects>
      <tilted>0</tilted></_>
    <_>
      <rects>
        <_>
          12 8 12 4 -1.</_>
        <_>
          12 8 12 2 2.</_></rects>
      <tilted>1</tilted></_>
    <_>
      <rects>
        <_>
          14 3 6 3 -1.</_>
        <_>
          14 4 6 1 3.</_></rects>
      <tilted>0</tilted></_>
    <_>
      <rects>
        <_>
          16 0 8 8 -1.</_>
        <_>
          20 0 4 8 2.</_></rects>
      <tilted>0</tilted></_>
    <_>
      <rects>
        <_>
          16 9 8 14 -1.</_>
        <_>
          16 9 4 7 2.</_>
        <_>
          20 16 4 7 2.</_></rects>
      <tilted>0</tilted></_>
    <_>
      <rects>
        <_>
          18 2 6 22 -1.</_>
        <_>
          18 2 3 11 2.</_>
        <_>
          21 13 3 11 2.</_></rects>
      <tilted>0</tilted></_>
    <_>
      <rects>
        <_>
          18 7 1 4 -1.</_>
        <_>
          18 9 1 2 2.</_></rects>
      <tilted>0</tilted></_>
    <_>
      <rects>
        <_>
          18 8 6 16 -1.</_>
        <_>
          18 8 3 8 2.</_>
        <_>
          21 16 3 8 2.</_></rects>
      <tilted>0</tilted></_>
    <_>
      <rects>
        <_>
          18 17 6 6 -1.</_>
        <_>
          21 17 3 6 2.</_></rects>
      <tilted>0</tilted></_>
    <_>
      <rects>
        <_>
          20 4 4 20 -1.</_>
        <_>
          20 4 2 10 2.</_>
        <_>
          22 14 2 10 2.</_></rects>
      <tilted>0</tilted></_>
    <_>
      <rects>
        <_>
          23 0 1 24 -1.</_>
        <_>
          23 12 1 12 2.</_></rects>
      <tilted>0</tilted></_></features></cascade>
</opencv_storage>
